<?xml version="1.0"?>
<opencv_storage>
<cascade>
  <stageType>BOOST</stageType>
  <featureType>LBP</featureType>
  <height>36</height>
  <width>36</width>
  <stageParams>
    <boostType>GAB</boostType>
    <minHitRate>9.9500000476837158e-01</minHitRate>
    <maxFalseAlarm>5.0000000000000000e-01</maxFalseAlarm>
    <weightTrimRate>9.4999999999999996e-01</weightTrimRate>
    <maxDepth>1</maxDepth>
    <maxWeakCount>100</maxWeakCount></stageParams>
  <featureParams>
    <maxCatCount>256</maxCatCount>
    <featSize>1</featSize></featureParams>
  <stageNum>21</stageNum>
  <stages>
    <!-- stage 0 -->
    <_>
      <maxWeakCount>5</maxWeakCount>
      <stageThreshold>-2.4053435325622559e+00</stageThreshold>
      <weakClassifiers>
        <_>
          <internalNodes>
            0 -1 71 -37748737 -4203567 -245901857 -2107939 -89391105
            -7747448 -1617970180 -1515268</internalNodes>
          <leafValues>
            -8.3848696947097778e-01 4.1151386499404907e-01</leafValues></_>
        <_>
          <internalNodes>
            0 -1 112 458412541 798429273 -1625860875 -1659119241
            -1158952453 -2001239893 -905782561 -1882208007</internalNodes>
          <leafValues>
            -7.1732711791992188e-01 5.0251454114913940e-01</leafValues></_>
        <_>
          <internalNodes>
            0 -1 43 -17235972 -2295841 -602802443 -198436 -225657860
            -70718262 -15615010 -60017536</internalNodes>
          <leafValues>
            -7.4112313985824585e-01 5.0573807954788208e-01</leafValues></_>
        <_>
          <internalNodes>
            0 -1 81 286794672 -1655254760 1409850847 -37924387
            -1685440067 -7863654 -880276545 267389028</internalNodes>
          <leafValues>
            -6.4612352848052979e-01 5.3974711894989014e-01</leafValues></_>
        <_>
          <internalNodes>
            0 -1 122 -176160769 502997907 -1814964771 267841788
            -544294401 -1349674837 -557260801 150863085</internalNodes>
          <leafValues>
            -6.5138375759124756e-01 5.3771716356277466e-01</leafValues></_></weakClassifiers></_>
    <!-- stage 1 -->
    <_>
      <maxWeakCount>5</maxWeakCount>
      <stageThreshold>-2.4121050834655762e+00</stageThreshold>
      <weakClassifiers>
        <_>
          <internalNodes>
            0 -1 58 -2146266128 -541011632 2097451999 -577436655
            -1976518405 -38109047 -1971287105 -1080491855</internalNodes>
          <leafValues>
            -8.5330384969711304e-01 1.5541601181030273e-01</leafValues></_>
        <_>
          <internalNodes>
            0 -1 76 -3276804 -10690664 -48889860 -51522049 -1836452871
            -108152696 -460521988 -63665924</internalNodes>
          <leafValues>
            -8.0545073747634888e-01 3.0209323763847351e-01</leafValues></_>
        <_>
          <internalNodes>
            0 -1 89 -35915521 496469139 1493686269 532667190 -1718883841
            -1665539878 -1450721281 218074363</internalNodes>
          <leafValues>
            -5.8903962373733521e-01 5.6923496723175049e-01</leafValues></_>
        <_>
          <internalNodes>
            0 -1 22 -1090289665 -1082420331 -653175457 -745844331
            302738558 1057096019 1493793127 -13414093</internalNodes>
          <leafValues>
            -6.4889407157897949e-01 4.7540140151977539e-01</leafValues></_>
        <_>
          <internalNodes>
            0 -1 82 822227216 -1114599208 1430851069 -842261159
            -1461706242 -99057512 176712686 697303616</internalNodes>
          <leafValues>
            -6.4111638069152832e-01 4.8458331823348999e-01</leafValues></_></weakClassifiers></_>
    <!-- stage 2 -->
    <_>
      <maxWeakCount>5</maxWeakCount>
      <stageThreshold>-1.6405937671661377e+00</stageThreshold>
      <weakClassifiers>
        <_>
          <internalNodes>
            0 -1 128 -1614284801 -1358965513 -372769793 -1342194729
            -3163137 -1679832949 -1053701 -1</internalNodes>
          <leafValues>
            -8.7067276239395142e-01 8.9430890977382660e-02</leafValues></_>
        <_>
          <internalNodes>
            0 -1 13 -8388617 2147472366 -1141683877 -269424858
            2070371185 2134890505 2142969399 1931965971</internalNodes>
          <leafValues>
            -8.1167489290237427e-01 1.6123236715793610e-01</leafValues></_>
        <_>
          <internalNodes>
            0 -1 104 935296401 671052281 -360726915 -2030045699
            -69219857 -1916991235 -3145985 -1996493879</internalNodes>
          <leafValues>
            -6.8640714883804321e-01 3.7030488252639771e-01</leafValues></_>
        <_>
          <internalNodes>
            0 -1 73 -1506787547 -1686840451 -146081285 -113282567
            1050606588 -26407 -1109689349 -1213325571</internalNodes>
          <leafValues>
            -5.9752625226974487e-01 4.2445856332778931e-01</leafValues></_>
        <_>
          <internalNodes>
            0 -1 69 261498741 1040048561 -1861820421 -1611211276
            386677631 2117829931 259683093 -1117366668</internalNodes>
          <leafValues>
            -6.6920477151870728e-01 4.1803520917892456e-01</leafValues></_></weakClassifiers></_>
    <!-- stage 3 -->
    <_>
      <maxWeakCount>5</maxWeakCount>
      <stageThreshold>-1.4384453296661377e+00</stageThreshold>
      <weakClassifiers>
        <_>
          <internalNodes>
            0 -1 133 -1073743105 -1342257185 -581437441 -1359025697
            -262209 -5525093 -101712129 -1</internalNodes>
          <leafValues>
            -8.7699317932128906e-01 1.3067400455474854e-01</leafValues></_>
        <_>
          <internalNodes>
            0 -1 20 -389 -10628609 -35792965 -1075838993 2069846893
            -8425890 -20035467 -4194625</internalNodes>
          <leafValues>
            -6.6805922985076904e-01 4.0455043315887451e-01</leafValues></_>
        <_>
          <internalNodes>
            0 -1 138 -1392541705 251649999 -1678262786 -1429017628
            -556795217 -337907029 -335841049 -419496073</internalNodes>
          <leafValues>
            -6.1357879638671875e-01 4.5115360617637634e-01</leafValues></_>
        <_>
          <internalNodes>
            0 -1 105 787619572 801005535 -979513897 -1393115155
            2146926591 -4503873 1056816124 -1929525379</internalNodes>
          <leafValues>
            -7.7080792188644409e-01 3.4557443857192993e-01</leafValues></_>
        <_>
          <internalNodes>
            0 -1 6 -55902210 -338632206 -2113797422 -628865576
            -377442918 -81385454 1090607282 -214437069</internalNodes>
          <leafValues>
            -5.8928298950195312e-01 4.5738497376441956e-01</leafValues></_></weakClassifiers></_>
    <!-- stage 4 -->
    <_>
      <maxWeakCount>5</maxWeakCount>
      <stageThreshold>-1.5388673543930054e+00</stageThreshold>
      <weakClassifiers>
        <_>
          <internalNodes>
            0 -1 129 -2097153 -1342704193 -538970121 -318769953
            -169870337 -1346634817 -409601 -1025</internalNodes>
          <leafValues>
            -8.5839557647705078e-01 5.9639390558004379e-02</leafValues></_>
        <_>
          <internalNodes>
            0 -1 26 -626825 -587271681 -371394114 -1076035621
            -1142997641 -4338241 -84145292 -196747</internalNodes>
          <leafValues>
            -7.3445713520050049e-01 1.9757592678070068e-01</leafValues></_>
        <_>
          <internalNodes>
            0 -1 130 636386815 685703135 1037824511 -1361117227
            533684223 -1144264101 -1392804865 -641</internalNodes>
          <leafValues>
            -6.1585658788681030e-01 3.6766692996025085e-01</leafValues></_>
        <_>
          <internalNodes>
            0 -1 24 -268435481 -1536167505 -285223438 -1565801172
            1325399911 1149237435 -1583724 -722994569</internalNodes>
          <leafValues>
            -5.9409010410308838e-01 3.8390147686004639e-01</leafValues></_>
        <_>
          <internalNodes>
            0 -1 84 -2621451 844557277 -2088661635 500161503 -370672979
            -1249272674 -178258196 140377140</internalNodes>
          <leafValues>
            -6.3209450244903564e-01 4.2365482449531555e-01</leafValues></_></weakClassifiers></_>
    <!-- stage 5 -->
    <_>
      <maxWeakCount>5</maxWeakCount>
      <stageThreshold>-1.6108285188674927e+00</stageThreshold>
      <weakClassifiers>
        <_>
          <internalNodes>
            0 -1 21 1473773567 -157353 1555167739 -2622504 2145344383
            -1148232185 -586475201 -295105</internalNodes>
          <leafValues>
            -8.5148161649703979e-01 -2.1521522104740143e-01</leafValues></_>
        <_>
          <internalNodes>
            0 -1 57 771799024 -1118785132 -1349062667 -1074441232
            1006484447 -1087398997 -442391 -1108069968</internalNodes>
          <leafValues>
            -6.9252938032150269e-01 2.0711748301982880e-01</leafValues></_>
        <_>
          <internalNodes>
            0 -1 139 -1476415491 -1362101282 -950631462 -1365864754
            -693142849 -340920355 2139347966 -285410049</internalNodes>
          <leafValues>
            -6.4083546400070190e-01 3.6635056138038635e-01</leafValues></_>
        <_>
          <internalNodes>
            0 -1 15 -7897193 -8389761 -238485570 -274016398 -238733979
            2002996559 2143285044 -147327369</internalNodes>
          <leafValues>
            -6.1404615640640259e-01 3.3803305029869080e-01</leafValues></_>
        <_>
          <internalNodes>
            0 -1 16 685078514 -137701931 -518925351 -1078472281
            -1174155856 -16448783 1888576500 1677092720</internalNodes>
          <leafValues>
            -6.6366201639175415e-01 3.5442134737968445e-01</leafValues></_></weakClassifiers></_>
    <!-- stage 6 -->
    <_>
      <maxWeakCount>7</maxWeakCount>
      <stageThreshold>-1.5043971538543701e+00</stageThreshold>
      <weakClassifiers>
        <_>
          <internalNodes>
            0 -1 87 -545260235 -42600079 -1791543811 2141183763
            -307512420 -1107814227 -22222424 -1124336645</internalNodes>
          <leafValues>
            -8.0402010679244995e-01 -6.4935065805912018e-02</leafValues></_>
        <_>
          <internalNodes>
            0 -1 132 -1075838977 -1410401843 -413592642 -288037926
            715913723 -1343513469 -1142523409 -33623053</internalNodes>
          <leafValues>
            -6.1694806814193726e-01 2.6130554080009460e-01</leafValues></_>
        <_>
          <internalNodes>
            0 -1 11 -547364873 -2632737 -746172161 -4137064 1915966323
            1539594532 692479927 1735415346</internalNodes>
          <leafValues>
            -7.5208765268325806e-01 2.5521054863929749e-01</leafValues></_>
        <_>
          <internalNodes>
            0 -1 79 1073299263 -1082142251 -884635713 -274925315
            965557247 -271902770 1060076415 -1426646412</internalNodes>
          <leafValues>
            -5.2934700250625610e-01 4.0183740854263306e-01</leafValues></_>
        <_>
          <internalNodes>
            0 -1 37 -1014305054 -362364864 -1961502353 -201516896
            1200099262 -45423470 2122547199 -6409</internalNodes>
          <leafValues>
            -4.1858595609664917e-01 4.6547821164131165e-01</leafValues></_>
        <_>
          <internalNodes>
            0 -1 90 66355125 -136383496 -715275809 -46662669 836549558
            -95706918 -342312275 -1175438636</internalNodes>
          <leafValues>
            -5.0634908676147461e-01 3.8834983110427856e-01</leafValues></_>
        <_>
          <internalNodes>
            0 -1 4 -875107358 -1031757280 1517076627 -1925907242
            -896015478 -616529862 1176304197 -612893358</internalNodes>
          <leafValues>
            -5.1814138889312744e-01 3.8581210374832153e-01</leafValues></_></weakClassifiers></_>
    <!-- stage 7 -->
    <_>
      <maxWeakCount>7</maxWeakCount>
      <stageThreshold>-1.6629445552825928e+00</stageThreshold>
      <weakClassifiers>
        <_>
          <internalNodes>
            0 -1 100 -10485931 -143392929 499708247 1606406839
            -729486564 -558503826 -471024200 -1124140242</internalNodes>
          <leafValues>
            -8.2752788066864014e-01 -1.8149466812610626e-01</leafValues></_>
        <_>
          <internalNodes>
            0 -1 131 -1073741825 191822189 -1871193121 -1342515246
            462421755 -5258549 -1228156003 -2360835</internalNodes>
          <leafValues>
            -5.9532457590103149e-01 2.6951366662979126e-01</leafValues></_>
        <_>
          <internalNodes>
            0 -1 93 526007573 -1091545777 1583601151 -1108075526
            -1078175235 -6501377 -1396040708 -1879302320</internalNodes>
          <leafValues>
            -5.4025286436080933e-01 3.4278756380081177e-01</leafValues></_>
        <_>
          <internalNodes>
            0 -1 51 1037770069 1039979487 2034056189 -1248359488
            2037349503 -1087805669 1610362740 -71994848</internalNodes>
          <leafValues>
            -5.6814426183700562e-01 3.0553957819938660e-01</leafValues></_>
        <_>
          <internalNodes>
            0 -1 17 -303051485 -583552119 -104820174 -313353982
            1944288037 1931683882 -2082254016 1932652834</internalNodes>
          <leafValues>
            -8.2528352737426758e-01 2.4613475799560547e-01</leafValues></_>
        <_>
          <internalNodes>
            0 -1 121 -472915971 -1194408996 -1995015916 -771189928
            -330729216 -1463226273 2085931509 -860882945</internalNodes>
          <leafValues>
            -4.9182093143463135e-01 3.7944978475570679e-01</leafValues></_>
        <_>
          <internalNodes>
            0 -1 3 -1021644881 -1362582750 -2125997093 2008725928
            2064357513 -561792125 442585969 -362555675</internalNodes>
          <leafValues>
            -4.5111486315727234e-01 4.2868527770042419e-01</leafValues></_></weakClassifiers></_>
    <!-- stage 8 -->
    <_>
      <maxWeakCount>7</maxWeakCount>
      <stageThreshold>-1.6143612861633301e+00</stageThreshold>
      <weakClassifiers>
        <_>
          <internalNodes>
            0 -1 23 -447819777 -36163472 1335188413 -574781328
            -376444161 -5340991 -291972101 -270572905</internalNodes>
          <leafValues>
            -7.9585522413253784e-01 -4.7619048506021500e-02</leafValues></_>
        <_>
          <internalNodes>
            0 -1 91 532429821 -1084304033 -780040707 -1621496437
            1621785531 -89396599 -1148883458 -1345422115</internalNodes>
          <leafValues>
            -6.2073743343353271e-01 2.1443407237529755e-01</leafValues></_>
        <_>
          <internalNodes>
            0 -1 72 -1939280323 1421929749 -1757294091 -1174621732
            -1156040195 -46952289 -73728012 -1359730896</internalNodes>
          <leafValues>
            -5.8468258380889893e-01 2.8934520483016968e-01</leafValues></_>
        <_>
          <internalNodes>
            0 -1 124 668530681 -1411648003 -666430565 -1781024805
            512979705 -84376856 -1114660616 -1125468073</internalNodes>
          <leafValues>
            -5.0048112869262695e-01 3.4286248683929443e-01</leafValues></_>
        <_>
          <internalNodes>
            0 -1 56 -1397176368 -1610869806 1963246521 -1080123524
            -1953893441 -105346919 1770535099 -1386782300</internalNodes>
          <leafValues>
            -4.3495449423789978e-01 4.3988749384880066e-01</leafValues></_>
        <_>
          <internalNodes>
            0 -1 122 -448793637 772604739 1410717272 491137651
            1537970574 -1350496127 1548608141 16640381</internalNodes>
          <leafValues>
            -6.6365754604339600e-01 2.8785929083824158e-01</leafValues></_>
        <_>
          <internalNodes>
            0 -1 31 42887158 -1081028102 1627635847 491942338 1563226872
            -591285866 949426873 1292386356</internalNodes>
          <leafValues>
            -6.0620629787445068e-01 3.0753937363624573e-01</leafValues></_></weakClassifiers></_>
    <!-- stage 9 -->
    <_>
      <maxWeakCount>8</maxWeakCount>
      <stageThreshold>-1.6120995283126831e+00</stageThreshold>
      <weakClassifiers>
        <_>
          <internalNodes>
            0 -1 75 -60820207 -113647269 1360632309 2032113747
            -922905112 -55015267 -355476964 -1180839377</internalNodes>
          <leafValues>
            -8.1145900487899780e-01 -2.0551379024982452e-01</leafValues></_>
        <_>
          <internalNodes>
            0 -1 92 965473777 -1881189671 1217451477 -1349782824
            -625969155 -1649698524 -217348619 -1628472933</internalNodes>
          <leafValues>
            -5.9816247224807739e-01 1.8238556385040283e-01</leafValues></_>
        <_>
          <internalNodes>
            0 -1 58 -1566949520 -3877008 1125941973 502561088
            -1186550791 -104890215 1049112543 -1351272396</internalNodes>
          <leafValues>
            -4.8415720462799072e-01 3.2859969139099121e-01</leafValues></_>
        <_>
          <internalNodes>
            0 -1 102 -805308604 1020318980 -581827538 1355132491
            1404147972 1931073641 -65670620 -252314830</internalNodes>
          <leafValues>
            -6.1473095417022705e-01 2.7363705635070801e-01</leafValues></_>
        <_>
          <internalNodes>
            0 -1 67 -896992580 1908249559 -551838497 -411232836
            -611143939 -1110752799 -344913540 -386894752</internalNodes>
          <leafValues>
            -5.4697144031524658e-01 3.2181301712989807e-01</leafValues></_>
        <_>
          <internalNodes>
            0 -1 7 -845743650 -573781918 -1069264193 2134906064
            -893206290 -2004516861 1424283545 1460794404</internalNodes>
          <leafValues>
            -6.4767056703567505e-01 2.7190801501274109e-01</leafValues></_>
        <_>
          <internalNodes>
            0 -1 88 -1218445548 71824319 -40821415 -1096903829
            -1312319060 -237797161 -1604416344 -1603406493</internalNodes>
          <leafValues>
            -5.0514745712280273e-01 3.2561489939689636e-01</leafValues></_>
        <_>
          <internalNodes>
            0 -1 83 -547489516 -1076296956 -1853762266 -1403588062
            -1026628948 1474211020 -261986512 339076757</internalNodes>
          <leafValues>
            -6.9665211439132690e-01 2.5746527314186096e-01</leafValues></_></weakClassifiers></_>
    <!-- stage 10 -->
    <_>
      <maxWeakCount>8</maxWeakCount>
      <stageThreshold>-1.5379362106323242e+00</stageThreshold>
      <weakClassifiers>
        <_>
          <internalNodes>
            0 -1 98 -74457259 -2240041 -710492737 -149306733 -552995908
            -107231069 -1416954918 -17831653</internalNodes>
          <leafValues>
            -7.7832061052322388e-01 -9.7142860293388367e-02</leafValues></_>
        <_>
          <internalNodes>
            0 -1 110 -572793345 500931857 -1420574120 635809823
            847907581 214945968 -1180173573 218103679</internalNodes>
          <leafValues>
            -6.6570395231246948e-01 9.6057437360286713e-02</leafValues></_>
        <_>
          <internalNodes>
            0 -1 74 2136419860 1974971201 -826134339 -985210471
            -1122649172 -1096187411 1913534984 612892541</internalNodes>
          <leafValues>
            -5.8044266700744629e-01 2.2159978747367859e-01</leafValues></_>
        <_>
          <internalNodes>
            0 -1 28 2069515551 -1332243374 1493203227 1292144664
            2028041074 503447570 -301571789 2087878195</internalNodes>
          <leafValues>
            -7.0165771245956421e-01 2.3992778360843658e-01</leafValues></_>
        <_>
          <internalNodes>
            0 -1 66 407560304 -135207844 1224821343 -1342221836
            -360698924 -1154283974 2139249610 145227860</internalNodes>
          <leafValues>
            -5.7904320955276489e-01 2.8731760382652283e-01</leafValues></_>
        <_>
          <internalNodes>
            0 -1 8 -389501990 517119634 -1307399404 63477902 -1707455082
            -1634426679 -830083542 103130050</internalNodes>
          <leafValues>
            -6.3116550445556641e-01 2.1746374666690826e-01</leafValues></_>
        <_>
          <internalNodes>
            0 -1 36 -1566116670 -1631583640 26448321 -203467870
            1672086174 -924931551 -352063026 -995142473</internalNodes>
          <leafValues>
            -4.8634731769561768e-01 3.3338242769241333e-01</leafValues></_>
        <_>
          <internalNodes>
            0 -1 59 -231353644 -1827022945 -939489832 1169526801
            -1479700292 1541112171 -1162139137 2080318658</internalNodes>
          <leafValues>
            -4.0642178058624268e-01 3.8992491364479065e-01</leafValues></_></weakClassifiers></_>
    <!-- stage 11 -->
    <_>
      <maxWeakCount>8</maxWeakCount>
      <stageThreshold>-1.8512607812881470e+00</stageThreshold>
      <weakClassifiers>
        <_>
          <internalNodes>
            0 -1 98 -70254763 -14821889 -788088385 -1222692709
            -683541572 -1128363275 -1562592326 -51381989</internalNodes>
          <leafValues>
            -7.8825050592422485e-01 -2.2507122159004211e-01</leafValues></_>
        <_>
          <internalNodes>
            0 -1 137 -204493073 -2135700998 -1861133868 -121186990
            1198960813 1490917387 -321985632 -454827017</internalNodes>
          <leafValues>
            -5.1581740379333496e-01 2.3171903192996979e-01</leafValues></_>
        <_>
          <internalNodes>
            0 -1 62 640187232 -9261162 -494432049 -137643564 -91390491
            -612126553 1771001819 -1126411803</internalNodes>
          <leafValues>
            -5.6398642063140869e-01 2.3952916264533997e-01</leafValues></_>
        <_>
          <internalNodes>
            0 -1 112 -1184899599 -1925745931 -1878583087 -1443833827
            -1196496465 -1884190046 -398400632 -1938040067</internalNodes>
          <leafValues>
            -4.8772856593132019e-01 2.9856780171394348e-01</leafValues></_>
        <_>
          <internalNodes>
            0 -1 107 -555760620 -1242243308 -1862012297 1885599250
            1421108228 1755529729 562188456 -1438722300</internalNodes>
          <leafValues>
            -4.7992041707038879e-01 3.1936967372894287e-01</leafValues></_>
        <_>
          <internalNodes>
            0 -1 30 1795020668 -119635617 -1811975475 -628239426
            -1622940968 -543446901 -814834724 -564350044</internalNodes>
          <leafValues>
            -5.1157945394515991e-01 2.9753461480140686e-01</leafValues></_>
        <_>
          <internalNodes>
            0 -1 108 -53002968 -2019699888 -1070202582 616878297
            -1727069656 -1701167103 -2132012784 677247459</internalNodes>
          <leafValues>
            -6.3253623247146606e-01 2.4120773375034332e-01</leafValues></_>
        <_>
          <internalNodes>
            0 -1 68 -1305039041 -68896843 -269484033 -1817282639
            1056223229 -1619529729 -848363525 -1082190703</internalNodes>
          <leafValues>
            -3.4059619903564453e-01 4.6104973554611206e-01</leafValues></_></weakClassifiers></_>
    <!-- stage 12 -->
    <_>
      <maxWeakCount>8</maxWeakCount>
      <stageThreshold>-1.8138178586959839e+00</stageThreshold>
      <weakClassifiers>
        <_>
          <internalNodes>
            0 -1 45 -269746221 -274214706 -712912045 -169895784
            -2098398225 -894522997 -1031035913 -8029</internalNodes>
          <leafValues>
            -7.8881984949111938e-01 -2.5236168503761292e-01</leafValues></_>
        <_>
          <internalNodes>
            0 -1 19 -1212745029 2131218653 1381974998 -621308705
            -1148225186 -71759705 -1211319484 -35885195</internalNodes>
          <leafValues>
            -5.8519649505615234e-01 1.1756696552038193e-01</leafValues></_>
        <_>
          <internalNodes>
            0 -1 70 -963725824 813564118 -803890735 1196205959
            1019494382 -35421526 1252658044 766862025</internalNodes>
          <leafValues>
            -5.3036266565322876e-01 2.4855813384056091e-01</leafValues></_>
        <_>
          <internalNodes>
            0 -1 126 1071644381 -1143090921 520472317 -1630084905
            983249579 -6634878 1775064571 -1109397284</internalNodes>
          <leafValues>
            -4.2012771964073181e-01 3.4628188610076904e-01</leafValues></_>
        <_>
          <internalNodes>
            0 -1 2 -362754078 6727680 -1878533692 1860160586 -1428244354
            -1959867765 48276392 -1066959674</internalNodes>
          <leafValues>
            -6.0603511333465576e-01 2.7477574348449707e-01</leafValues></_>
        <_>
          <internalNodes>
            0 -1 136 1222889387 -1460434422 -1073622696 740215122
            545962230 -928890813 -930557467 -933757273</internalNodes>
          <leafValues>
            -4.1488000750541687e-01 3.7304875254631042e-01</leafValues></_>
        <_>
          <internalNodes>
            0 -1 101 -548405712 -82341546 294220221 2114063015
            1300741815 -1233076205 202160538 -1997455965</internalNodes>
          <leafValues>
            -4.3058738112449646e-01 3.4328356385231018e-01</leafValues></_>
        <_>
          <internalNodes>
            0 -1 118 -336630281 -1156870691 270786584 -1312122063
            -812572004 -316207734 -380948888 -2006844988</internalNodes>
          <leafValues>
            -4.1965591907501221e-01 3.7861713767051697e-01</leafValues></_></weakClassifiers></_>
    <!-- stage 13 -->
    <_>
      <maxWeakCount>9</maxWeakCount>
      <stageThreshold>-1.5391360521316528e+00</stageThreshold>
      <weakClassifiers>
        <_>
          <internalNodes>
            0 -1 25 -150803470 -69562193 -587108333 -539528237
            -557614917 -306701866 -89555921 -67142837</internalNodes>
          <leafValues>
            -8.0830669403076172e-01 -3.2858595252037048e-01</leafValues></_>
        <_>
          <internalNodes>
            0 -1 80 -1089421512 -715865636 -772919042 -1080360483
            2055388073 -543145836 -1083403589 -1377040495</internalNodes>
          <leafValues>
            -5.8166944980621338e-01 1.0890372842550278e-01</leafValues></_>
        <_>
          <internalNodes>
            0 -1 119 -144970069 629656050 369472694 -1308560484
            -1069349880 2135445505 -167797718 1414782782</internalNodes>
          <leafValues>
            -4.6726801991462708e-01 2.6340681314468384e-01</leafValues></_>
        <_>
          <internalNodes>
            0 -1 60 1779380848 1429721118 486641119 -102350481
            -787874895 -593458961 -1549201656 208214099</internalNodes>
          <leafValues>
            -3.8885271549224854e-01 3.3728423714637756e-01</leafValues></_>
        <_>
          <internalNodes>
            0 -1 1 610779541 1192453122 1627541784 -1860586543
            -1633494387 -342904605 -1106017294 -920394896</internalNodes>
          <leafValues>
            -3.6399465799331665e-01 3.7907785177230835e-01</leafValues></_>
        <_>
          <internalNodes>
            0 -1 99 -52637552 -304541411 -585903139 2052375769
            -133910021 -73863119 458076781 141181197</internalNodes>
          <leafValues>
            -4.6966153383255005e-01 3.1127768754959106e-01</leafValues></_>
        <_>
          <internalNodes>
            0 -1 127 -666383077 -667105772 -2029522916 1976814473
            1887830038 -292156926 1088076122 -1325743122</internalNodes>
          <leafValues>
            -3.9179018139839172e-01 3.7211272120475769e-01</leafValues></_>
        <_>
          <internalNodes>
            0 -1 77 -1430738829 -53474603 -1198333969 -136462243
            -209060911 -70909823 -276071801 -1329693708</internalNodes>
          <leafValues>
            -3.9405366778373718e-01 3.6582070589065552e-01</leafValues></_>
        <_>
          <internalNodes>
            0 -1 113 -65342980 -1378691455 -1061149548 431018372
            -81116567 -1207238445 -953460303 -1935605931</internalNodes>
          <leafValues>
            -5.0376158952713013e-01 3.0189806222915649e-01</leafValues></_></weakClassifiers></_>
    <!-- stage 14 -->
    <_>
      <maxWeakCount>8</maxWeakCount>
      <stageThreshold>-1.5353537797927856e+00</stageThreshold>
      <weakClassifiers>
        <_>
          <internalNodes>
            0 -1 49 -135795218 -326758198 -653045710 -145378910
            -386139957 167870601 -753667177 -134753281</internalNodes>
          <leafValues>
            -7.9952430725097656e-01 -2.8821471333503723e-01</leafValues></_>
        <_>
          <internalNodes>
            0 -1 134 -1363280913 790098036 1678018613 -1374245969
            990288808 -41189248 -1438408231 -1370490177</internalNodes>
          <leafValues>
            -6.1011677980422974e-01 9.9423103034496307e-02</leafValues></_>
        <_>
          <internalNodes>
            0 -1 14 -939556941 -104710056 -939454024 -7175245 1884923752
            479199246 1665886841 1712550403</internalNodes>
          <leafValues>
            -5.4792773723602295e-01 2.2760672867298126e-01</leafValues></_>
        <_>
          <internalNodes>
            0 -1 54 25608212 1040355662 50636908 -545824263 1355615116
            -16768880 1535395850 799883782</internalNodes>
          <leafValues>
            -4.8637360334396362e-01 3.1560197472572327e-01</leafValues></_>
        <_>
          <internalNodes>
            0 -1 114 -1657275395 -1320649849 134350290 -1508456240
            940109049 1538824579 939539704 -1124078870</internalNodes>
          <leafValues>
            -4.0595814585685730e-01 3.5343733429908752e-01</leafValues></_>
        <_>
          <internalNodes>
            0 -1 53 694438424 1585038368 903582189 -1350913886
            -746567522 -91449168 -77058500 676594512</internalNodes>
          <leafValues>
            -6.9030010700225830e-01 2.0476788282394409e-01</leafValues></_>
        <_>
          <internalNodes>
            0 -1 39 -117444692 -1616474400 -1229009096 -172523806
            -1653082113 -1935314979 1064443374 -542638881</internalNodes>
          <leafValues>
            -3.1589242815971375e-01 5.1555138826370239e-01</leafValues></_>
        <_>
          <internalNodes>
            0 -1 97 -1231268676 -1424334503 -670021287 1051909200
            583783805 -1715863454 -1148569476 150251952</internalNodes>
          <leafValues>
            -6.6667598485946655e-01 2.3191967606544495e-01</leafValues></_></weakClassifiers></_>
    <!-- stage 15 -->
    <_>
      <maxWeakCount>8</maxWeakCount>
      <stageThreshold>-1.6315529346466064e+00</stageThreshold>
      <weakClassifiers>
        <_>
          <internalNodes>
            0 -1 35 -712840969 -41167717 -721399471 -10530405 -364880965
            -1182782294 983593855 -302026117</internalNodes>
          <leafValues>
            -8.0962061882019043e-01 -2.4764150381088257e-01</leafValues></_>
        <_>
          <internalNodes>
            0 -1 27 -674048421 -753053385 -1685989281 -673195746
            -1173595025 1520570896 -1182122447 -273679729</internalNodes>
          <leafValues>
            -5.6018179655075073e-01 1.6669139266014099e-01</leafValues></_>
        <_>
          <internalNodes>
            0 -1 86 1799400308 773619864 -717153443 -1165045252
            2122676565 364632575 1977445060 681842436</internalNodes>
          <leafValues>
            -7.3332756757736206e-01 1.6483928263187408e-01</leafValues></_>
        <_>
          <internalNodes>
            0 -1 38 2011816514 -1035943290 -1859415280 -1606052462
            1094831077 1237356690 1889747204 1647175639</internalNodes>
          <leafValues>
            -5.2598792314529419e-01 2.9142203927040100e-01</leafValues></_>
        <_>
          <internalNodes>
            0 -1 123 -2058628393 495521798 -805287615 785114117
            -255814967 2038612225 -880555303 754970365</internalNodes>
          <leafValues>
            -5.9455120563507080e-01 2.2962936758995056e-01</leafValues></_>
        <_>
          <internalNodes>
            0 -1 94 -78064 2147483519 1878884147 524287422 -304640004
            -1124761603 -1224934934 -1168031886</internalNodes>
          <leafValues>
            -3.5921549797058105e-01 4.3801552057266235e-01</leafValues></_>
        <_>
          <internalNodes>
            0 -1 18 1385355764 -1040151540 -2146315823 -1860577186
            1786917110 -368882960 79705027 1766287121</internalNodes>
          <leafValues>
            -5.5954396724700928e-01 2.7253475785255432e-01</leafValues></_>
        <_>
          <internalNodes>
            0 -1 40 -601326910 -1249267438 -1879011300 -141528750
            1233668779 -443891551 -393916183 -910572265</internalNodes>
          <leafValues>
            -4.2746531963348389e-01 4.0646356344223022e-01</leafValues></_></weakClassifiers></_>
    <!-- stage 16 -->
    <_>
      <maxWeakCount>8</maxWeakCount>
      <stageThreshold>-1.7605800628662109e+00</stageThreshold>
      <weakClassifiers>
        <_>
          <internalNodes>
            0 -1 29 -403704193 -14765602 1293218255 -547663595
            -1576887621 -1097629528 -394210647 -8400229</internalNodes>
          <leafValues>
            -7.5793534517288208e-01 -1.0489510744810104e-01</leafValues></_>
        <_>
          <internalNodes>
            0 -1 125 -20451798 -2158149 1073975485 -532503510 -259847410
            -1203729878 -236781844 -151781505</internalNodes>
          <leafValues>
            -5.0492841005325317e-01 1.9927662611007690e-01</leafValues></_>
        <_>
          <internalNodes>
            0 -1 63 713046960 -1118825476 -619360807 229436900 749933381
            -1413250941 -1147521499 507004948</internalNodes>
          <leafValues>
            -6.9387143850326538e-01 1.5925015509128571e-01</leafValues></_>
        <_>
          <internalNodes>
            0 -1 33 1573446364 2108277256 353454174 561075269
            -2091398228 135404170 -128537623 356540981</internalNodes>
          <leafValues>
            -5.2989488840103149e-01 2.5096368789672852e-01</leafValues></_>
        <_>
          <internalNodes>
            0 -1 103 -741346433 1025126735 -796782276 -1156640545
            1800097929 2139869340 -1417625203 1344991509</internalNodes>
          <leafValues>
            -4.5145028829574585e-01 2.8240317106246948e-01</leafValues></_>
        <_>
          <internalNodes>
            0 -1 10 401775771 1060159287 -268435523 -300646547
            2138356198 -1073906121 2138505022 -193724585</internalNodes>
          <leafValues>
            -3.2556030154228210e-01 4.3523263931274414e-01</leafValues></_>
        <_>
          <internalNodes>
            0 -1 9 -119348494 -236474378 -50595107 295921420 -1277326087
            -344000527 -566330 -813892001</internalNodes>
          <leafValues>
            -3.1299600005149841e-01 4.4831383228302002e-01</leafValues></_>
        <_>
          <internalNodes>
            0 -1 111 328978429 -1357778918 201363825 706478486 910383846
            -1935537792 2081131048 -1597325188</internalNodes>
          <leafValues>
            -5.5264163017272949e-01 2.5872993469238281e-01</leafValues></_></weakClassifiers></_>
    <!-- stage 17 -->
    <_>
      <maxWeakCount>10</maxWeakCount>
      <stageThreshold>-1.3209347724914551e+00</stageThreshold>
      <weakClassifiers>
        <_>
          <internalNodes>
            0 -1 0 -541067777 -787017125 -1861516897 -1224357 -50070645
            -108297688 1775106715 -11799893</internalNodes>
          <leafValues>
            -7.2436243295669556e-01 6.1403506994247437e-01</leafValues></_>
        <_>
          <internalNodes>
            0 -1 135 1968145379 806585354 268435507 -1995726206
            -519648520 -1685913600 -1056816884 -925638145</internalNodes>
          <leafValues>
            -4.2844334244728088e-01 3.3058425784111023e-01</leafValues></_>
        <_>
          <internalNodes>
            0 -1 12 -463744249 -1217363821 17825948 1057542164
            -1071103471 -2042183606 -1342060396 1982982214</internalNodes>
          <leafValues>
            -5.6913745403289795e-01 2.3432996869087219e-01</leafValues></_>
        <_>
          <internalNodes>
            0 -1 78 979643028 -1233120488 1896956375 796999872
            -1333734811 -916807544 -1595729667 559759456</internalNodes>
          <leafValues>
            -5.7111322879791260e-01 2.4550132453441620e-01</leafValues></_>
        <_>
          <internalNodes>
            0 -1 42 -502355738 -3276588 285496641 1444205200 -1562867698
            -367749118 1764229325 1892161143</internalNodes>
          <leafValues>
            -5.4593300819396973e-01 3.0128368735313416e-01</leafValues></_>
        <_>
          <internalNodes>
            0 -1 47 -1125188916 -1617653749 1628455384 256675878
            -887463514 956465284 -1831648533 868434232</internalNodes>
          <leafValues>
            -4.9145063757896423e-01 3.0516940355300903e-01</leafValues></_>
        <_>
          <internalNodes>
            0 -1 96 -601984272 1502715985 1125368251 -2117598975
            151061904 -152436560 -1566553863 -1405025020</internalNodes>
          <leafValues>
            -4.2743170261383057e-01 3.6825829744338989e-01</leafValues></_>
        <_>
          <internalNodes>
            0 -1 5 -340594630 -1794834288 32833 499353019 1137197294
            -1425538488 1212261897 1535625239</internalNodes>
          <leafValues>
            -3.9716139435768127e-01 4.2351910471916199e-01</leafValues></_>
        <_>
          <internalNodes>
            0 -1 109 -251457468 355570128 4198746 1277696133 -1306396540
            119042 -654050855 1611960836</internalNodes>
          <leafValues>
            -6.8386328220367432e-01 2.3993204534053802e-01</leafValues></_>
        <_>
          <internalNodes>
            0 -1 116 -209342166 1531122186 1073758226 1082577666
            -2138511310 704872448 1648407112 -695197045</internalNodes>
          <leafValues>
            -4.8621103167533875e-01 3.4223210811614990e-01</leafValues></_></weakClassifiers></_>
    <!-- stage 18 -->
    <_>
      <maxWeakCount>8</maxWeakCount>
      <stageThreshold>-1.4257009029388428e+00</stageThreshold>
      <weakClassifiers>
        <_>
          <internalNodes>
            0 -1 117 -34079009 -547524867 -626691 960216995 -38417015
            -1361150081 -1157825541 -29370725</internalNodes>
          <leafValues>
            -7.4958992004394531e-01 1.</leafValues></_>
        <_>
          <internalNodes>
            0 -1 120 -510946478 -1728053238 16859457 2130739587
            -1450954070 -612368384 772286666 -607399158</internalNodes>
          <leafValues>
            -4.6330636739730835e-01 4.9037030339241028e-01</leafValues></_>
        <_>
          <internalNodes>
            0 -1 65 -620259952 -769933309 -2130706387 -1962934269
            134466193 -1851621278 -2046792408 210248218</internalNodes>
          <leafValues>
            -5.0493800640106201e-01 3.9620372653007507e-01</leafValues></_>
        <_>
          <internalNodes>
            0 -1 34 -937983721 -1056923641 81997 -1727754111 65672
            -2138562422 -1072752628 -1844689790</internalNodes>
          <leafValues>
            -4.7004821896553040e-01 4.3091088533401489e-01</leafValues></_>
        <_>
          <internalNodes>
            0 -1 52 -2126415930 1085071521 1073762496 1364426950
            1619165346 32897 184573968 -254836543</internalNodes>
          <leafValues>
            -4.6937218308448792e-01 4.5664790272712708e-01</leafValues></_>
        <_>
          <internalNodes>
            0 -1 64 1095280788 -699138046 1360089412 1880097280
            1091080209 1082167425 21049744 -1852140927</internalNodes>
          <leafValues>
            -5.3459715843200684e-01 4.2276346683502197e-01</leafValues></_>
        <_>
          <internalNodes>
            0 -1 41 276878106 893911105 393601 1360527360 -2012741344
            -2122219392 -2012737526 463601763</internalNodes>
          <leafValues>
            -5.5516183376312256e-01 4.0588742494583130e-01</leafValues></_>
        <_>
          <internalNodes>
            0 -1 46 -1581625637 518651871 -20946 -625410594 1266499109
            1442832381 1560059755 -924324250</internalNodes>
          <leafValues>
            -4.0680810809135437e-01 5.7507151365280151e-01</leafValues></_></weakClassifiers></_>
    <!-- stage 19 -->
    <_>
      <maxWeakCount>6</maxWeakCount>
      <stageThreshold>-2.1687166690826416e+00</stageThreshold>
      <weakClassifiers>
        <_>
          <internalNodes>
            0 -1 115 -1870425633 -788398078 268435467 1359053057
            -2147450648 -1996488446 4309646 -645676345</internalNodes>
          <leafValues>
            -7.8422081470489502e-01 1.</leafValues></_>
        <_>
          <internalNodes>
            0 -1 106 -25786437 -34177043 -4231320 -135512279 670398312
            -729842243 -1347115287 -244095882</internalNodes>
          <leafValues>
            -5.2963918447494507e-01 7.3336869478225708e-01</leafValues></_>
        <_>
          <internalNodes>
            0 -1 85 -1065287632 1896874002 8407045 269484626 67141784
            -1602093024 570435617 134971488</internalNodes>
          <leafValues>
            -5.7193517684936523e-01 4.9944821000099182e-01</leafValues></_>
        <_>
          <internalNodes>
            0 -1 95 -941426847 783675046 1069473591 -293634051 -131446
            534575100 -42025073 -72300716</internalNodes>
          <leafValues>
            -4.6283638477325439e-01 6.5885543823242188e-01</leafValues></_>
        <_>
          <internalNodes>
            0 -1 48 -1502265519 -390791610 805252715 1610391535
            -404785531 2130112502 777578264 234863300</internalNodes>
          <leafValues>
            -5.0957429409027100e-01 6.0316824913024902e-01</leafValues></_>
        <_>
          <internalNodes>
            0 -1 32 -1477674671 904461350 1862008330 1012934448
            -806006832 -623380482 1987506449 -626829649</internalNodes>
          <leafValues>
            -4.3220254778862000e-01 7.9226440191268921e-01</leafValues></_></weakClassifiers></_>
    <!-- stage 20 -->
    <_>
      <maxWeakCount>4</maxWeakCount>
      <stageThreshold>-1.3838902711868286e+00</stageThreshold>
      <weakClassifiers>
        <_>
          <internalNodes>
            0 -1 55 1346420819 -1824522221 16384 1209336073 -2147483511
            -1065222142 134250506 571180035</internalNodes>
          <leafValues>
            -8.4570598602294922e-01 8.3561640977859497e-01</leafValues></_>
        <_>
          <internalNodes>
            0 -1 50 -805125990 -1794047998 65552 16879617 -1727455103
            -671088632 268435661 1619055235</internalNodes>
          <leafValues>
            -6.3331270217895508e-01 8.9282149076461792e-01</leafValues></_>
        <_>
          <internalNodes>
            0 -1 44 -1968857296 1022263277 -99345 318582700 -545372235
            -17301529 1055928122 -866961461</internalNodes>
          <leafValues>
            -5.0741654634475708e-01 8.6987262964248657e-01</leafValues></_>
        <_>
          <internalNodes>
            0 -1 61 -939374256 -1342111742 67112960 989921280 16812040
            343932928 268468868 197252</internalNodes>
          <leafValues>
            -7.7474421262741089e-01 6.0979264974594116e-01</leafValues></_></weakClassifiers></_></stages>
  <features>
    <_>
      <rect>
        0 0 2 2</rect></_>
    <_>
      <rect>
        0 0 2 6</rect></_>
    <_>
      <rect>
        0 0 4 3</rect></_>
    <_>
      <rect>
        0 1 4 3</rect></_>
    <_>
      <rect>
        0 2 3 7</rect></_>
    <_>
      <rect>
        0 3 2 7</rect></_>
    <_>
      <rect>
        0 3 4 10</rect></_>
    <_>
      <rect>
        0 4 4 10</rect></_>
    <_>
      <rect>
        0 10 7 3</rect></_>
    <_>
      <rect>
        0 11 5 2</rect></_>
    <_>
      <rect>
        0 12 1 6</rect></_>
    <_>
      <rect>
        0 20 5 5</rect></_>
    <_>
      <rect>
        0 21 2 3</rect></_>
    <_>
      <rect>
        0 24 4 4</rect></_>
    <_>
      <rect>
        0 25 3 3</rect></_>
    <_>
      <rect>
        0 28 2 1</rect></_>
    <_>
      <rect>
        0 28 11 2</rect></_>
    <_>
      <rect>
        0 29 3 1</rect></_>
    <_>
      <rect>
        0 30 9 2</rect></_>
    <_>
      <rect>
        0 31 1 1</rect></_>
    <_>
      <rect>
        0 33 2 1</rect></_>
    <_>
      <rect>
        0 33 5 1</rect></_>
    <_>
      <rect>
        0 33 6 1</rect></_>
    <_>
      <rect>
        1 0 7 1</rect></_>
    <_>
      <rect>
        1 5 2 1</rect></_>
    <_>
      <rect>
        1 30 6 2</rect></_>
    <_>
      <rect>
        1 32 1 1</rect></_>
    <_>
      <rect>
        1 33 2 1</rect></_>
    <_>
      <rect>
        1 33 4 1</rect></_>
    <_>
      <rect>
        2 0 4 1</rect></_>
    <_>
      <rect>
        2 6 10 8</rect></_>
    <_>
      <rect>
        2 8 7 3</rect></_>
    <_>
      <rect>
        2 10 3 2</rect></_>
    <_>
      <rect>
        2 10 3 4</rect></_>
    <_>
      <rect>
        2 19 4 5</rect></_>
    <_>
      <rect>
        2 30 6 2</rect></_>
    <_>
      <rect>
        3 0 3 3</rect></_>
    <_>
      <rect>
        3 0 4 2</rect></_>
    <_>
      <rect>
        3 3 2 2</rect></_>
    <_>
      <rect>
        3 4 2 3</rect></_>
    <_>
      <rect>
        3 8 2 3</rect></_>
    <_>
      <rect>
        3 14 7 2</rect></_>
    <_>
      <rect>
        4 0 4 2</rect></_>
    <_>
      <rect>
        4 0 8 11</rect></_>
    <_>
      <rect>
        4 11 6 3</rect></_>
    <_>
      <rect>
        5 4 1 1</rect></_>
    <_>
      <rect>
        5 4 5 6</rect></_>
    <_>
      <rect>
        5 8 2 2</rect></_>
    <_>
      <rect>
        5 14 10 3</rect></_>
    <_>
      <rect>
        6 5 1 1</rect></_>
    <_>
      <rect>
        6 13 3 2</rect></_>
    <_>
      <rect>
        6 33 3 1</rect></_>
    <_>
      <rect>
        7 3 1 1</rect></_>
    <_>
      <rect>
        7 6 6 3</rect></_>
    <_>
      <rect>
        7 16 7 2</rect></_>
    <_>
      <rect>
        7 18 4 2</rect></_>
    <_>
      <rect>
        8 0 2 1</rect></_>
    <_>
      <rect>
        8 0 3 1</rect></_>
    <_>
      <rect>
        8 0 5 1</rect></_>
    <_>
      <rect>
        9 10 6 3</rect></_>
    <_>
      <rect>
        9 16 8 1</rect></_>
    <_>
      <rect>
        9 29 8 2</rect></_>
    <_>
      <rect>
        10 1 1 1</rect></_>
    <_>
      <rect>
        10 1 3 1</rect></_>
    <_>
      <rect>
        10 5 4 1</rect></_>
    <_>
      <rect>
        10 8 8 2</rect></_>
    <_>
      <rect>
        10 26 4 1</rect></_>
    <_>
      <rect>
        10 26 4 3</rect></_>
    <_>
      <rect>
        10 27 3 1</rect></_>
    <_>
      <rect>
        10 33 3 1</rect></_>
    <_>
      <rect>
        11 0 6 1</rect></_>
    <_>
      <rect>
        11 19 6 5</rect></_>
    <_>
      <rect>
        11 28 2 1</rect></_>
    <_>
      <rect>
        12 0 1 1</rect></_>
    <_>
      <rect>
        12 0 7 2</rect></_>
    <_>
      <rect>
        12 0 8 1</rect></_>
    <_>
      <rect>
        12 1 8 11</rect></_>
    <_>
      <rect>
        12 3 1 1</rect></_>
    <_>
      <rect>
        12 27 5 1</rect></_>
    <_>
      <rect>
        12 33 3 1</rect></_>
    <_>
      <rect>
        13 0 2 1</rect></_>
    <_>
      <rect>
        13 0 3 1</rect></_>
    <_>
      <rect>
        13 0 4 1</rect></_>
    <_>
      <rect>
        15 9 7 6</rect></_>
    <_>
      <rect>
        15 21 7 4</rect></_>
    <_>
      <rect>
        15 25 5 1</rect></_>
    <_>
      <rect>
        16 21 3 1</rect></_>
    <_>
      <rect>
        17 0 6 1</rect></_>
    <_>
      <rect>
        17 1 6 2</rect></_>
    <_>
      <rect>
        18 27 6 3</rect></_>
    <_>
      <rect>
        18 28 1 1</rect></_>
    <_>
      <rect>
        18 33 2 1</rect></_>
    <_>
      <rect>
        18 33 5 1</rect></_>
    <_>
      <rect>
        19 0 2 1</rect></_>
    <_>
      <rect>
        19 0 4 1</rect></_>
    <_>
      <rect>
        19 5 4 5</rect></_>
    <_>
      <rect>
        19 16 2 1</rect></_>
    <_>
      <rect>
        19 29 3 2</rect></_>
    <_>
      <rect>
        20 0 4 1</rect></_>
    <_>
      <rect>
        20 26 2 1</rect></_>
    <_>
      <rect>
        21 0 4 1</rect></_>
    <_>
      <rect>
        21 1 5 9</rect></_>
    <_>
      <rect>
        21 2 4 2</rect></_>
    <_>
      <rect>
        21 20 4 4</rect></_>
    <_>
      <rect>
        21 33 5 1</rect></_>
    <_>
      <rect>
        22 33 2 1</rect></_>
    <_>
      <rect>
        23 15 3 2</rect></_>
    <_>
      <rect>
        24 0 4 2</rect></_>
    <_>
      <rect>
        24 4 3 3</rect></_>
    <_>
      <rect>
        24 27 3 2</rect></_>
    <_>
      <rect>
        24 27 4 3</rect></_>
    <_>
      <rect>
        24 33 2 1</rect></_>
    <_>
      <rect>
        24 33 4 1</rect></_>
    <_>
      <rect>
        25 16 3 3</rect></_>
    <_>
      <rect>
        25 32 2 1</rect></_>
    <_>
      <rect>
        26 2 3 4</rect></_>
    <_>
      <rect>
        26 4 1 1</rect></_>
    <_>
      <rect>
        26 7 3 2</rect></_>
    <_>
      <rect>
        26 23 3 2</rect></_>
    <_>
      <rect>
        27 4 2 2</rect></_>
    <_>
      <rect>
        27 7 3 5</rect></_>
    <_>
      <rect>
        27 11 3 6</rect></_>
    <_>
      <rect>
        27 21 3 5</rect></_>
    <_>
      <rect>
        27 24 3 4</rect></_>
    <_>
      <rect>
        27 33 1 1</rect></_>
    <_>
      <rect>
        28 4 1 1</rect></_>
    <_>
      <rect>
        29 33 1 1</rect></_>
    <_>
      <rect>
        30 5 2 6</rect></_>
    <_>
      <rect>
        30 30 2 2</rect></_>
    <_>
      <rect>
        30 31 2 1</rect></_>
    <_>
      <rect>
        30 33 1 1</rect></_>
    <_>
      <rect>
        31 30 1 2</rect></_>
    <_>
      <rect>
        32 30 1 1</rect></_>
    <_>
      <rect>
        32 32 1 1</rect></_>
    <_>
      <rect>
        32 33 1 1</rect></_>
    <_>
      <rect>
        33 14 1 5</rect></_>
    <_>
      <rect>
        33 19 1 3</rect></_>
    <_>
      <rect>
        33 20 1 2</rect></_>
    <_>
      <rect>
        33 29 1 1</rect></_>
    <_>
      <rect>
        33 31 1 1</rect></_></features></cascade>
</opencv_storage>
