<?xml version="1.0"?>
<opencv_storage>
<stage9>
  <maxWeakCount>8</maxWeakCount>
  <stageThreshold>-1.6120995283126831e+00</stageThreshold>
  <weakClassifiers>
    <_>
      <internalNodes>
        0 -1 24864 -60820207 -113647269 1360632309 2032113747 -922905112
        -55015267 -355476964 -1180839377</internalNodes>
      <leafValues>
        -8.1145900487899780e-01 -2.0551379024982452e-01</leafValues></_>
    <_>
      <internalNodes>
        0 -1 34648 965473777 -1881189671 1217451477 -1349782824
        -625969155 -1649698524 -217348619 -1628472933</internalNodes>
      <leafValues>
        -5.9816247224807739e-01 1.8238556385040283e-01</leafValues></_>
    <_>
      <internalNodes>
        0 -1 17688 -1566949520 -3877008 1125941973 502561088 -1186550791
        -104890215 1049112543 -1351272396</internalNodes>
      <leafValues>
        -4.8415720462799072e-01 3.2859969139099121e-01</leafValues></_>
    <_>
      <internalNodes>
        0 -1 36899 -805308604 1020318980 -581827538 1355132491
        1404147972 1931073641 -65670620 -252314830</internalNodes>
      <leafValues>
        -6.1473095417022705e-01 2.7363705635070801e-01</leafValues></_>
    <_>
      <internalNodes>
        0 -1 22991 -896992580 1908249559 -551838497 -411232836
        -611143939 -1110752799 -344913540 -386894752</internalNodes>
      <leafValues>
        -5.4697144031524658e-01 3.2181301712989807e-01</leafValues></_>
    <_>
      <internalNodes>
        0 -1 579 -845743650 -573781918 -1069264193 2134906064 -893206290
        -2004516861 1424283545 1460794404</internalNodes>
      <leafValues>
        -6.4767056703567505e-01 2.7190801501274109e-01</leafValues></_>
    <_>
      <internalNodes>
        0 -1 32258 -1218445548 71824319 -40821415 -1096903829
        -1312319060 -237797161 -1604416344 -1603406493</internalNodes>
      <leafValues>
        -5.0514745712280273e-01 3.2561489939689636e-01</leafValues></_>
    <_>
      <internalNodes>
        0 -1 30110 -547489516 -1076296956 -1853762266 -1403588062
        -1026628948 1474211020 -261986512 339076757</internalNodes>
      <leafValues>
        -6.9665211439132690e-01 2.5746527314186096e-01</leafValues></_></weakClassifiers></stage9>
</opencv_storage>
