<?xml version="1.0"?>
<opencv_storage>
<stage8>
  <maxWeakCount>7</maxWeakCount>
  <stageThreshold>-1.6143612861633301e+00</stageThreshold>
  <weakClassifiers>
    <_>
      <internalNodes>
        0 -1 2592 -447819777 -36163472 1335188413 -574781328 -376444161
        -5340991 -291972101 -270572905</internalNodes>
      <leafValues>
        -7.9585522413253784e-01 -4.7619048506021500e-02</leafValues></_>
    <_>
      <internalNodes>
        0 -1 34645 532429821 -1084304033 -780040707 -1621496437
        1621785531 -89396599 -1148883458 -1345422115</internalNodes>
      <leafValues>
        -6.2073743343353271e-01 2.1443407237529755e-01</leafValues></_>
    <_>
      <internalNodes>
        0 -1 24710 -1939280323 1421929749 -1757294091 -1174621732
        -1156040195 -46952289 -73728012 -1359730896</internalNodes>
      <leafValues>
        -5.8468258380889893e-01 2.8934520483016968e-01</leafValues></_>
    <_>
      <internalNodes>
        0 -1 42207 668530681 -1411648003 -666430565 -1781024805
        512979705 -84376856 -1114660616 -1125468073</internalNodes>
      <leafValues>
        -5.0048112869262695e-01 3.4286248683929443e-01</leafValues></_>
    <_>
      <internalNodes>
        0 -1 17652 -1397176368 -1610869806 1963246521 -1080123524
        -1953893441 -105346919 1770535099 -1386782300</internalNodes>
      <leafValues>
        -4.3495449423789978e-01 4.3988749384880066e-01</leafValues></_>
    <_>
      <internalNodes>
        0 -1 42119 -448793637 772604739 1410717272 491137651 1537970574
        -1350496127 1548608141 16640381</internalNodes>
      <leafValues>
        -6.6365754604339600e-01 2.8785929083824158e-01</leafValues></_>
    <_>
      <internalNodes>
        0 -1 5810 42887158 -1081028102 1627635847 491942338 1563226872
        -591285866 949426873 1292386356</internalNodes>
      <leafValues>
        -6.0620629787445068e-01 3.0753937363624573e-01</leafValues></_></weakClassifiers></stage8>
</opencv_storage>
