<?xml version="1.0"?>
<opencv_storage>
<stage7>
  <maxWeakCount>7</maxWeakCount>
  <stageThreshold>-1.6629445552825928e+00</stageThreshold>
  <weakClassifiers>
    <_>
      <internalNodes>
        0 -1 36786 -10485931 -143392929 499708247 1606406839 -729486564
        -558503826 -471024200 -1124140242</internalNodes>
      <leafValues>
        -8.2752788066864014e-01 -1.8149466812610626e-01</leafValues></_>
    <_>
      <internalNodes>
        0 -1 43676 -1073741825 191822189 -1871193121 -1342515246
        462421755 -5258549 -1228156003 -2360835</internalNodes>
      <leafValues>
        -5.9532457590103149e-01 2.6951366662979126e-01</leafValues></_>
    <_>
      <internalNodes>
        0 -1 34662 526007573 -1091545777 1583601151 -1108075526
        -1078175235 -6501377 -1396040708 -1879302320</internalNodes>
      <leafValues>
        -5.4025286436080933e-01 3.4278756380081177e-01</leafValues></_>
    <_>
      <internalNodes>
        0 -1 15742 1037770069 1039979487 2034056189 -1248359488
        2037349503 -1087805669 1610362740 -71994848</internalNodes>
      <leafValues>
        -5.6814426183700562e-01 3.0553957819938660e-01</leafValues></_>
    <_>
      <internalNodes>
        0 -1 2440 -303051485 -583552119 -104820174 -313353982 1944288037
        1931683882 -2082254016 1932652834</internalNodes>
      <leafValues>
        -8.2528352737426758e-01 2.4613475799560547e-01</leafValues></_>
    <_>
      <internalNodes>
        0 -1 41931 -472915971 -1194408996 -1995015916 -771189928
        -330729216 -1463226273 2085931509 -860882945</internalNodes>
      <leafValues>
        -4.9182093143463135e-01 3.7944978475570679e-01</leafValues></_>
    <_>
      <internalNodes>
        0 -1 179 -1021644881 -1362582750 -2125997093 2008725928
        2064357513 -561792125 442585969 -362555675</internalNodes>
      <leafValues>
        -4.5111486315727234e-01 4.2868527770042419e-01</leafValues></_></weakClassifiers></stage7>
</opencv_storage>
