<?xml version="1.0"?>
<opencv_storage>
<stage15>
  <maxWeakCount>8</maxWeakCount>
  <stageThreshold>-1.6315529346466064e+00</stageThreshold>
  <weakClassifiers>
    <_>
      <internalNodes>
        0 -1 7096 -712840969 -41167717 -721399471 -10530405 -364880965
        -1182782294 983593855 -302026117</internalNodes>
      <leafValues>
        -8.0962061882019043e-01 -2.4764150381088257e-01</leafValues></_>
    <_>
      <internalNodes>
        0 -1 4820 -674048421 -753053385 -1685989281 -673195746
        -1173595025 1520570896 -1182122447 -273679729</internalNodes>
      <leafValues>
        -5.6018179655075073e-01 1.6669139266014099e-01</leafValues></_>
    <_>
      <internalNodes>
        0 -1 31930 1799400308 773619864 -717153443 -1165045252
        2122676565 364632575 1977445060 681842436</internalNodes>
      <leafValues>
        -7.3332756757736206e-01 1.6483928263187408e-01</leafValues></_>
    <_>
      <internalNodes>
        0 -1 7526 2011816514 -1035943290 -1859415280 -1606052462
        1094831077 1237356690 1889747204 1647175639</internalNodes>
      <leafValues>
        -5.2598792314529419e-01 2.9142203927040100e-01</leafValues></_>
    <_>
      <internalNodes>
        0 -1 42155 -2058628393 495521798 -805287615 785114117 -255814967
        2038612225 -880555303 754970365</internalNodes>
      <leafValues>
        -5.9455120563507080e-01 2.2962936758995056e-01</leafValues></_>
    <_>
      <internalNodes>
        0 -1 34686 -78064 2147483519 1878884147 524287422 -304640004
        -1124761603 -1224934934 -1168031886</internalNodes>
      <leafValues>
        -3.5921549797058105e-01 4.3801552057266235e-01</leafValues></_>
    <_>
      <internalNodes>
        0 -1 2477 1385355764 -1040151540 -2146315823 -1860577186
        1786917110 -368882960 79705027 1766287121</internalNodes>
      <leafValues>
        -5.5954396724700928e-01 2.7253475785255432e-01</leafValues></_>
    <_>
      <internalNodes>
        0 -1 8075 -601326910 -1249267438 -1879011300 -141528750
        1233668779 -443891551 -393916183 -910572265</internalNodes>
      <leafValues>
        -4.2746531963348389e-01 4.0646356344223022e-01</leafValues></_></weakClassifiers></stage15>
</opencv_storage>
