<?xml version="1.0"?>
<opencv_storage>
<stage12>
  <maxWeakCount>8</maxWeakCount>
  <stageThreshold>-1.8138178586959839e+00</stageThreshold>
  <weakClassifiers>
    <_>
      <internalNodes>
        0 -1 12000 -269746221 -274214706 -712912045 -169895784
        -2098398225 -894522997 -1031035913 -8029</internalNodes>
      <leafValues>
        -7.8881984949111938e-01 -2.5236168503761292e-01</leafValues></_>
    <_>
      <internalNodes>
        0 -1 2484 -1212745029 2131218653 1381974998 -621308705
        -1148225186 -71759705 -1211319484 -35885195</internalNodes>
      <leafValues>
        -5.8519649505615234e-01 1.1756696552038193e-01</leafValues></_>
    <_>
      <internalNodes>
        0 -1 23160 -963725824 813564118 -803890735 1196205959 1019494382
        -35421526 1252658044 766862025</internalNodes>
      <leafValues>
        -5.3036266565322876e-01 2.4855813384056091e-01</leafValues></_>
    <_>
      <internalNodes>
        0 -1 43048 1071644381 -1143090921 520472317 -1630084905
        983249579 -6634878 1775064571 -1109397284</internalNodes>
      <leafValues>
        -4.2012771964073181e-01 3.4628188610076904e-01</leafValues></_>
    <_>
      <internalNodes>
        0 -1 38 -362754078 6727680 -1878533692 1860160586 -1428244354
        -1959867765 48276392 -1066959674</internalNodes>
      <leafValues>
        -6.0603511333465576e-01 2.7477574348449707e-01</leafValues></_>
    <_>
      <internalNodes>
        0 -1 44057 1222889387 -1460434422 -1073622696 740215122
        545962230 -928890813 -930557467 -933757273</internalNodes>
      <leafValues>
        -4.1488000750541687e-01 3.7304875254631042e-01</leafValues></_>
    <_>
      <internalNodes>
        0 -1 36862 -548405712 -82341546 294220221 2114063015 1300741815
        -1233076205 202160538 -1997455965</internalNodes>
      <leafValues>
        -4.3058738112449646e-01 3.4328356385231018e-01</leafValues></_>
    <_>
      <internalNodes>
        0 -1 41511 -336630281 -1156870691 270786584 -1312122063
        -812572004 -316207734 -380948888 -2006844988</internalNodes>
      <leafValues>
        -4.1965591907501221e-01 3.7861713767051697e-01</leafValues></_></weakClassifiers></stage12>
</opencv_storage>
