<?xml version="1.0"?>
<opencv_storage>
<stage11>
  <maxWeakCount>8</maxWeakCount>
  <stageThreshold>-1.8512607812881470e+00</stageThreshold>
  <weakClassifiers>
    <_>
      <internalNodes>
        0 -1 35736 -70254763 -14821889 -788088385 -1222692709 -683541572
        -1128363275 -1562592326 -51381989</internalNodes>
      <leafValues>
        -7.8825050592422485e-01 -2.2507122159004211e-01</leafValues></_>
    <_>
      <internalNodes>
        0 -1 44061 -204493073 -2135700998 -1861133868 -121186990
        1198960813 1490917387 -321985632 -454827017</internalNodes>
      <leafValues>
        -5.1581740379333496e-01 2.3171903192996979e-01</leafValues></_>
    <_>
      <internalNodes>
        0 -1 21516 640187232 -9261162 -494432049 -137643564 -91390491
        -612126553 1771001819 -1126411803</internalNodes>
      <leafValues>
        -5.6398642063140869e-01 2.3952916264533997e-01</leafValues></_>
    <_>
      <internalNodes>
        0 -1 40319 -1184899599 -1925745931 -1878583087 -1443833827
        -1196496465 -1884190046 -398400632 -1938040067</internalNodes>
      <leafValues>
        -4.8772856593132019e-01 2.9856780171394348e-01</leafValues></_>
    <_>
      <internalNodes>
        0 -1 39517 -555760620 -1242243308 -1862012297 1885599250
        1421108228 1755529729 562188456 -1438722300</internalNodes>
      <leafValues>
        -4.7992041707038879e-01 3.1936967372894287e-01</leafValues></_>
    <_>
      <internalNodes>
        0 -1 5642 1795020668 -119635617 -1811975475 -628239426
        -1622940968 -543446901 -814834724 -564350044</internalNodes>
      <leafValues>
        -5.1157945394515991e-01 2.9753461480140686e-01</leafValues></_>
    <_>
      <internalNodes>
        0 -1 39682 -53002968 -2019699888 -1070202582 616878297
        -1727069656 -1701167103 -2132012784 677247459</internalNodes>
      <leafValues>
        -6.3253623247146606e-01 2.4120773375034332e-01</leafValues></_>
    <_>
      <internalNodes>
        0 -1 23010 -1305039041 -68896843 -269484033 -1817282639
        1056223229 -1619529729 -848363525 -1082190703</internalNodes>
      <leafValues>
        -3.4059619903564453e-01 4.6104973554611206e-01</leafValues></_></weakClassifiers></stage11>
</opencv_storage>
