<?xml version="1.0"?>
<opencv_storage>
<stage6>
  <maxWeakCount>7</maxWeakCount>
  <stageThreshold>-1.5043971538543701e+00</stageThreshold>
  <weakClassifiers>
    <_>
      <internalNodes>
        0 -1 32190 -545260235 -42600079 -1791543811 2141183763
        -307512420 -1107814227 -22222424 -1124336645</internalNodes>
      <leafValues>
        -8.0402010679244995e-01 -6.4935065805912018e-02</leafValues></_>
    <_>
      <internalNodes>
        0 -1 43885 -1075838977 -1410401843 -413592642 -288037926
        715913723 -1343513469 -1142523409 -33623053</internalNodes>
      <leafValues>
        -6.1694806814193726e-01 2.6130554080009460e-01</leafValues></_>
    <_>
      <internalNodes>
        0 -1 2064 -547364873 -2632737 -746172161 -4137064 1915966323
        1539594532 692479927 1735415346</internalNodes>
      <leafValues>
        -7.5208765268325806e-01 2.5521054863929749e-01</leafValues></_>
    <_>
      <internalNodes>
        0 -1 26454 1073299263 -1082142251 -884635713 -274925315
        965557247 -271902770 1060076415 -1426646412</internalNodes>
      <leafValues>
        -5.2934700250625610e-01 4.0183740854263306e-01</leafValues></_>
    <_>
      <internalNodes>
        0 -1 7177 -1014305054 -362364864 -1961502353 -201516896
        1200099262 -45423470 2122547199 -6409</internalNodes>
      <leafValues>
        -4.1858595609664917e-01 4.6547821164131165e-01</leafValues></_>
    <_>
      <internalNodes>
        0 -1 34596 66355125 -136383496 -715275809 -46662669 836549558
        -95706918 -342312275 -1175438636</internalNodes>
      <leafValues>
        -5.0634908676147461e-01 3.8834983110427856e-01</leafValues></_>
    <_>
      <internalNodes>
        0 -1 304 -875107358 -1031757280 1517076627 -1925907242
        -896015478 -616529862 1176304197 -612893358</internalNodes>
      <leafValues>
        -5.1814138889312744e-01 3.8581210374832153e-01</leafValues></_></weakClassifiers></stage6>
</opencv_storage>
