<?xml version="1.0"?>
<opencv_storage>
<stage5>
  <maxWeakCount>5</maxWeakCount>
  <stageThreshold>-1.6108285188674927e+00</stageThreshold>
  <weakClassifiers>
    <_>
      <internalNodes>
        0 -1 2512 1473773567 -157353 1555167739 -2622504 2145344383
        -1148232185 -586475201 -295105</internalNodes>
      <leafValues>
        -8.5148161649703979e-01 -2.1521522104740143e-01</leafValues></_>
    <_>
      <internalNodes>
        0 -1 17664 771799024 -1118785132 -1349062667 -1074441232
        1006484447 -1087398997 -442391 -1108069968</internalNodes>
      <leafValues>
        -6.9252938032150269e-01 2.0711748301982880e-01</leafValues></_>
    <_>
      <internalNodes>
        0 -1 44097 -1476415491 -1362101282 -950631462 -1365864754
        -693142849 -340920355 2139347966 -285410049</internalNodes>
      <leafValues>
        -6.4083546400070190e-01 3.6635056138038635e-01</leafValues></_>
    <_>
      <internalNodes>
        0 -1 2414 -7897193 -8389761 -238485570 -274016398 -238733979
        2002996559 2143285044 -147327369</internalNodes>
      <leafValues>
        -6.1404615640640259e-01 3.3803305029869080e-01</leafValues></_>
    <_>
      <internalNodes>
        0 -1 2433 685078514 -137701931 -518925351 -1078472281
        -1174155856 -16448783 1888576500 1677092720</internalNodes>
      <leafValues>
        -6.6366201639175415e-01 3.5442134737968445e-01</leafValues></_></weakClassifiers></stage5>
</opencv_storage>
