<?xml version="1.0"?>
<opencv_storage>
<stage18>
  <maxWeakCount>8</maxWeakCount>
  <stageThreshold>-1.4257009029388428e+00</stageThreshold>
  <weakClassifiers>
    <_>
      <internalNodes>
        0 -1 41194 -34079009 -547524867 -626691 960216995 -38417015
        -1361150081 -1157825541 -29370725</internalNodes>
      <leafValues>
        -7.4958992004394531e-01 1.</leafValues></_>
    <_>
      <internalNodes>
        0 -1 41827 -510946478 -1728053238 16859457 2130739587
        -1450954070 -612368384 772286666 -607399158</internalNodes>
      <leafValues>
        -4.6330636739730835e-01 4.9037030339241028e-01</leafValues></_>
    <_>
      <internalNodes>
        0 -1 22156 -620259952 -769933309 -2130706387 -1962934269
        134466193 -1851621278 -2046792408 210248218</internalNodes>
      <leafValues>
        -5.0493800640106201e-01 3.9620372653007507e-01</leafValues></_>
    <_>
      <internalNodes>
        0 -1 6664 -937983721 -1056923641 81997 -1727754111 65672
        -2138562422 -1072752628 -1844689790</internalNodes>
      <leafValues>
        -4.7004821896553040e-01 4.3091088533401489e-01</leafValues></_>
    <_>
      <internalNodes>
        0 -1 16056 -2126415930 1085071521 1073762496 1364426950
        1619165346 32897 184573968 -254836543</internalNodes>
      <leafValues>
        -4.6937218308448792e-01 4.5664790272712708e-01</leafValues></_>
    <_>
      <internalNodes>
        0 -1 21890 1095280788 -699138046 1360089412 1880097280
        1091080209 1082167425 21049744 -1852140927</internalNodes>
      <leafValues>
        -5.3459715843200684e-01 4.2276346683502197e-01</leafValues></_>
    <_>
      <internalNodes>
        0 -1 8646 276878106 893911105 393601 1360527360 -2012741344
        -2122219392 -2012737526 463601763</internalNodes>
      <leafValues>
        -5.5516183376312256e-01 4.0588742494583130e-01</leafValues></_>
    <_>
      <internalNodes>
        0 -1 12045 -1581625637 518651871 -20946 -625410594 1266499109
        1442832381 1560059755 -924324250</internalNodes>
      <leafValues>
        -4.0680810809135437e-01 5.7507151365280151e-01</leafValues></_></weakClassifiers></stage18>
</opencv_storage>
