<?xml version="1.0"?>
<opencv_storage>
<stage13>
  <maxWeakCount>9</maxWeakCount>
  <stageThreshold>-1.5391360521316528e+00</stageThreshold>
  <weakClassifiers>
    <_>
      <internalNodes>
        0 -1 4786 -150803470 -69562193 -587108333 -539528237 -557614917
        -306701866 -89555921 -67142837</internalNodes>
      <leafValues>
        -8.0830669403076172e-01 -3.2858595252037048e-01</leafValues></_>
    <_>
      <internalNodes>
        0 -1 26472 -1089421512 -715865636 -772919042 -1080360483
        2055388073 -543145836 -1083403589 -1377040495</internalNodes>
      <leafValues>
        -5.8166944980621338e-01 1.0890372842550278e-01</leafValues></_>
    <_>
      <internalNodes>
        0 -1 41726 -144970069 629656050 369472694 -1308560484
        -1069349880 2135445505 -167797718 1414782782</internalNodes>
      <leafValues>
        -4.6726801991462708e-01 2.6340681314468384e-01</leafValues></_>
    <_>
      <internalNodes>
        0 -1 20895 1779380848 1429721118 486641119 -102350481 -787874895
        -593458961 -1549201656 208214099</internalNodes>
      <leafValues>
        -3.8885271549224854e-01 3.3728423714637756e-01</leafValues></_>
    <_>
      <internalNodes>
        0 -1 17 610779541 1192453122 1627541784 -1860586543 -1633494387
        -342904605 -1106017294 -920394896</internalNodes>
      <leafValues>
        -3.6399465799331665e-01 3.7907785177230835e-01</leafValues></_>
    <_>
      <internalNodes>
        0 -1 36678 -52637552 -304541411 -585903139 2052375769 -133910021
        -73863119 458076781 141181197</internalNodes>
      <leafValues>
        -4.6966153383255005e-01 3.1127768754959106e-01</leafValues></_>
    <_>
      <internalNodes>
        0 -1 43175 -666383077 -667105772 -2029522916 1976814473
        1887830038 -292156926 1088076122 -1325743122</internalNodes>
      <leafValues>
        -3.9179018139839172e-01 3.7211272120475769e-01</leafValues></_>
    <_>
      <internalNodes>
        0 -1 25052 -1430738829 -53474603 -1198333969 -136462243
        -209060911 -70909823 -276071801 -1329693708</internalNodes>
      <leafValues>
        -3.9405366778373718e-01 3.6582070589065552e-01</leafValues></_>
    <_>
      <internalNodes>
        0 -1 40775 -65342980 -1378691455 -1061149548 431018372 -81116567
        -1207238445 -953460303 -1935605931</internalNodes>
      <leafValues>
        -5.0376158952713013e-01 3.0189806222915649e-01</leafValues></_></weakClassifiers></stage13>
</opencv_storage>
