<?xml version="1.0"?>
<opencv_storage>
<stage16>
  <maxWeakCount>8</maxWeakCount>
  <stageThreshold>-1.7605800628662109e+00</stageThreshold>
  <weakClassifiers>
    <_>
      <internalNodes>
        0 -1 4866 -403704193 -14765602 1293218255 -547663595 -1576887621
        -1097629528 -394210647 -8400229</internalNodes>
      <leafValues>
        -7.5793534517288208e-01 -1.0489510744810104e-01</leafValues></_>
    <_>
      <internalNodes>
        0 -1 42300 -20451798 -2158149 1073975485 -532503510 -259847410
        -1203729878 -236781844 -151781505</internalNodes>
      <leafValues>
        -5.0492841005325317e-01 1.9927662611007690e-01</leafValues></_>
    <_>
      <internalNodes>
        0 -1 21538 713046960 -1118825476 -619360807 229436900 749933381
        -1413250941 -1147521499 507004948</internalNodes>
      <leafValues>
        -6.9387143850326538e-01 1.5925015509128571e-01</leafValues></_>
    <_>
      <internalNodes>
        0 -1 5971 1573446364 2108277256 353454174 561075269 -2091398228
        135404170 -128537623 356540981</internalNodes>
      <leafValues>
        -5.2989488840103149e-01 2.5096368789672852e-01</leafValues></_>
    <_>
      <internalNodes>
        0 -1 37618 -741346433 1025126735 -796782276 -1156640545
        1800097929 2139869340 -1417625203 1344991509</internalNodes>
      <leafValues>
        -4.5145028829574585e-01 2.8240317106246948e-01</leafValues></_>
    <_>
      <internalNodes>
        0 -1 1421 401775771 1060159287 -268435523 -300646547 2138356198
        -1073906121 2138505022 -193724585</internalNodes>
      <leafValues>
        -3.2556030154228210e-01 4.3523263931274414e-01</leafValues></_>
    <_>
      <internalNodes>
        0 -1 1353 -119348494 -236474378 -50595107 295921420 -1277326087
        -344000527 -566330 -813892001</internalNodes>
      <leafValues>
        -3.1299600005149841e-01 4.4831383228302002e-01</leafValues></_>
    <_>
      <internalNodes>
        0 -1 40317 328978429 -1357778918 201363825 706478486 910383846
        -1935537792 2081131048 -1597325188</internalNodes>
      <leafValues>
        -5.5264163017272949e-01 2.5872993469238281e-01</leafValues></_></weakClassifiers></stage16>
</opencv_storage>
